<?xml version="1.0"?>
<opencv_storage>
<cascade>
  <stageType>BOOST</stageType>
  <featureType>HAAR</featureType>
  <height>24</height>
  <width>24</width>
  <stageParams>
    <boostType>GAB</boostType>
    <minHitRate>9.9500000476837158e-01</minHitRate>
    <maxFalseAlarm>5.0000000000000000e-01</maxFalseAlarm>
    <weightTrimRate>9.4999999999999996e-01</weightTrimRate>
    <maxDepth>1</maxDepth>
    <maxWeakCount>100</maxWeakCount></stageParams>
  <featureParams>
    <maxCatCount>0</maxCatCount>
    <featSize>1</featSize>
    <mode>BASIC</mode></featureParams>
  <stageNum>17</stageNum>
  <stages>
    <!-- stage 0 -->
    <_>
      <maxWeakCount>1</maxWeakCount>
      <stageThreshold>9.9751859903335571e-01</stageThreshold>
      <weakClassifiers>
        <_>
          <internalNodes>
            0 -1 35 5.6779466569423676e-02</internalNodes>
          <leafValues>
            -1. 9.9751859903335571e-01</leafValues></_></weakClassifiers></_>
    <!-- stage 1 -->
    <_>
      <maxWeakCount>2</maxWeakCount>
      <stageThreshold>7.7403254806995392e-02</stageThreshold>
      <weakClassifiers>
        <_>
          <internalNodes>
            0 -1 17 -2.9699277877807617e-01</internalNodes>
          <leafValues>
            9.8509317636489868e-01 -8.6666667461395264e-01</leafValues></_>
        <_>
          <internalNodes>
            0 -1 14 -1.7875780165195465e-01</internalNodes>
          <leafValues>
            9.4406992197036743e-01 -9.8253810405731201e-01</leafValues></_></weakClassifiers></_>
    <!-- stage 2 -->
    <_>
      <maxWeakCount>2</maxWeakCount>
      <stageThreshold>7.4186436831951141e-02</stageThreshold>
      <weakClassifiers>
        <_>
          <internalNodes>
            0 -1 5 -2.9433435201644897e-01</internalNodes>
          <leafValues>
            9.8837208747863770e-01 -8.6956518888473511e-01</leafValues></_>
        <_>
          <internalNodes>
            0 -1 18 1.0458461940288544e-02</internalNodes>
          <leafValues>
            -8.9188498258590698e-01 9.4375163316726685e-01</leafValues></_></weakClassifiers></_>
    <!-- stage 3 -->
    <_>
      <maxWeakCount>3</maxWeakCount>
      <stageThreshold>1.0070610046386719e+00</stageThreshold>
      <weakClassifiers>
        <_>
          <internalNodes>
            0 -1 28 -1.6009107232093811e-01</internalNodes>
          <leafValues>
            9.5107913017272949e-01 -7.1764707565307617e-01</leafValues></_>
        <_>
          <internalNodes>
            0 -1 38 5.4717153310775757e-02</internalNodes>
          <leafValues>
            -8.0885010957717896e-01 8.5982924699783325e-01</leafValues></_>
        <_>
          <internalNodes>
            0 -1 22 1.3639897108078003e-02</internalNodes>
          <leafValues>
            -7.3893630504608154e-01 8.6487877368927002e-01</leafValues></_></weakClassifiers></_>
    <!-- stage 4 -->
    <_>
      <maxWeakCount>3</maxWeakCount>
      <stageThreshold>-3.5084620118141174e-01</stageThreshold>
      <weakClassifiers>
        <_>
          <internalNodes>
            0 -1 34 -1.6462440544273704e-04</internalNodes>
          <leafValues>
            -8.3606559038162231e-01 9.0542417764663696e-01</leafValues></_>
        <_>
          <internalNodes>
            0 -1 11 -1.8415229860693216e-03</internalNodes>
          <leafValues>
            -6.4951980113983154e-01 7.8519177436828613e-01</leafValues></_>
        <_>
          <internalNodes>
            0 -1 13 -2.7293539047241211e-01</internalNodes>
          <leafValues>
            7.9333585500717163e-01 -6.0675060749053955e-01</leafValues></_></weakClassifiers></_>
    <!-- stage 5 -->
    <_>
      <maxWeakCount>1</maxWeakCount>
      <stageThreshold>8.8251364231109619e-01</stageThreshold>
      <weakClassifiers>
        <_>
          <internalNodes>
            0 -1 47 2.1770529448986053e-02</internalNodes>
          <leafValues>
            8.8251364231109619e-01 -9.5833331346511841e-01</leafValues></_></weakClassifiers></_>
    <!-- stage 6 -->
    <_>
      <maxWeakCount>1</maxWeakCount>
      <stageThreshold>9.0568655729293823e-01</stageThreshold>
      <weakClassifiers>
        <_>
          <internalNodes>
            0 -1 29 1.2608206272125244e-01</internalNodes>
          <leafValues>
            -8.9830505847930908e-01 9.0568655729293823e-01</leafValues></_></weakClassifiers></_>
    <!-- stage 7 -->
    <_>
      <maxWeakCount>1</maxWeakCount>
      <stageThreshold>9.0082645416259766e-01</stageThreshold>
      <weakClassifiers>
        <_>
          <internalNodes>
            0 -1 20 -4.9817271530628204e-02</internalNodes>
          <leafValues>
            9.0082645416259766e-01 -1.</leafValues></_></weakClassifiers></_>
    <!-- stage 8 -->
    <_>
      <maxWeakCount>4</maxWeakCount>
      <stageThreshold>3.5674628615379333e-01</stageThreshold>
      <weakClassifiers>
        <_>
          <internalNodes>
            0 -1 0 -1.6249135136604309e-02</internalNodes>
          <leafValues>
            8.9972144365310669e-01 -7.4193549156188965e-01</leafValues></_>
        <_>
          <internalNodes>
            0 -1 37 7.1723768487572670e-03</internalNodes>
          <leafValues>
            -5.6766879558563232e-01 7.9108804464340210e-01</leafValues></_>
        <_>
          <internalNodes>
            0 -1 12 -2.6782685518264771e-01</internalNodes>
          <leafValues>
            8.8334411382675171e-01 -4.3772506713867188e-01</leafValues></_>
        <_>
          <internalNodes>
            0 -1 43 1.8090497702360153e-02</internalNodes>
          <leafValues>
            -6.0355198383331299e-01 7.4531883001327515e-01</leafValues></_></weakClassifiers></_>
    <!-- stage 9 -->
    <_>
      <maxWeakCount>5</maxWeakCount>
      <stageThreshold>-2.4786914885044098e-01</stageThreshold>
      <weakClassifiers>
        <_>
          <internalNodes>
            0 -1 1 -2.0030680298805237e-01</internalNodes>
          <leafValues>
            8.6920982599258423e-01 -8.2608693838119507e-01</leafValues></_>
        <_>
          <internalNodes>
            0 -1 8 -2.4698930792510509e-04</internalNodes>
          <leafValues>
            -5.6809383630752563e-01 7.1878457069396973e-01</leafValues></_>
        <_>
          <internalNodes>
            0 -1 31 2.8360468149185181e-01</internalNodes>
          <leafValues>
            -5.5960279703140259e-01 7.1187222003936768e-01</leafValues></_>
        <_>
          <internalNodes>
            0 -1 16 6.8209541495889425e-04</internalNodes>
          <leafValues>
            5.4337078332901001e-01 -8.5403603315353394e-01</leafValues></_>
        <_>
          <internalNodes>
            0 -1 45 9.9004702642560005e-03</internalNodes>
          <leafValues>
            -5.3275310993194580e-01 6.8052142858505249e-01</leafValues></_></weakClassifiers></_>
    <!-- stage 10 -->
    <_>
      <maxWeakCount>4</maxWeakCount>
      <stageThreshold>3.6729726195335388e-01</stageThreshold>
      <weakClassifiers>
        <_>
          <internalNodes>
            0 -1 25 1.0162846744060516e-01</internalNodes>
          <leafValues>
            -5.4838711023330688e-01 8.8300836086273193e-01</leafValues></_>
        <_>
          <internalNodes>
            0 -1 3 4.9315299838781357e-03</internalNodes>
          <leafValues>
            -3.0907100439071655e-01 8.3263444900512695e-01</leafValues></_>
        <_>
          <internalNodes>
            0 -1 4 -3.6561292409896851e-01</internalNodes>
          <leafValues>
            7.0840948820114136e-01 -5.2097839117050171e-01</leafValues></_>
        <_>
          <internalNodes>
            0 -1 40 4.5455666258931160e-03</internalNodes>
          <leafValues>
            6.0402828454971313e-01 -6.1790013313293457e-01</leafValues></_></weakClassifiers></_>
    <!-- stage 11 -->
    <_>
      <maxWeakCount>4</maxWeakCount>
      <stageThreshold>3.4156316518783569e-01</stageThreshold>
      <weakClassifiers>
        <_>
          <internalNodes>
            0 -1 21 2.1149232983589172e-02</internalNodes>
          <leafValues>
            -8.0000001192092896e-01 8.7671232223510742e-01</leafValues></_>
        <_>
          <internalNodes>
            0 -1 46 -1.9348693967913277e-05</internalNodes>
          <leafValues>
            7.4050110578536987e-01 -5.6483548879623413e-01</leafValues></_>
        <_>
          <internalNodes>
            0 -1 15 -7.1699805557727814e-03</internalNodes>
          <leafValues>
            7.9057812690734863e-01 -5.0832235813140869e-01</leafValues></_>
        <_>
          <internalNodes>
            0 -1 19 1.6056041204137728e-05</internalNodes>
          <leafValues>
            -7.4639356136322021e-01 5.3800868988037109e-01</leafValues></_></weakClassifiers></_>
    <!-- stage 12 -->
    <_>
      <maxWeakCount>4</maxWeakCount>
      <stageThreshold>-2.8857236728072166e-02</stageThreshold>
      <weakClassifiers>
        <_>
          <internalNodes>
            0 -1 36 -1.3352084904909134e-02</internalNodes>
          <leafValues>
            -8.6956518888473511e-01 8.7193459272384644e-01</leafValues></_>
        <_>
          <internalNodes>
            0 -1 10 1.2740120291709900e-03</internalNodes>
          <leafValues>
            6.6061013936996460e-01 -8.6846619844436646e-01</leafValues></_>
        <_>
          <internalNodes>
            0 -1 24 -1.4876432251185179e-03</internalNodes>
          <leafValues>
            7.4704176187515259e-01 -6.1498367786407471e-01</leafValues></_>
        <_>
          <internalNodes>
            0 -1 26 -2.0685848593711853e-01</internalNodes>
          <leafValues>
            5.8265799283981323e-01 -6.9787800312042236e-01</leafValues></_></weakClassifiers></_>
    <!-- stage 13 -->
    <_>
      <maxWeakCount>3</maxWeakCount>
      <stageThreshold>-1.1544548720121384e-01</stageThreshold>
      <weakClassifiers>
        <_>
          <internalNodes>
            0 -1 41 -1.8199260812252760e-03</internalNodes>
          <leafValues>
            -5.2777779102325439e-01 9.0112996101379395e-01</leafValues></_>
        <_>
          <internalNodes>
            0 -1 2 -4.3325027823448181e-01</internalNodes>
          <leafValues>
            8.0374777317047119e-01 -5.0928401947021484e-01</leafValues></_>
        <_>
          <internalNodes>
            0 -1 6 1.6140489606186748e-05</internalNodes>
          <leafValues>
            -5.0729143619537354e-01 7.9572498798370361e-01</leafValues></_></weakClassifiers></_>
    <!-- stage 14 -->
    <_>
      <maxWeakCount>3</maxWeakCount>
      <stageThreshold>5.2786791324615479e-01</stageThreshold>
      <weakClassifiers>
        <_>
          <internalNodes>
            0 -1 33 1.8654539599083364e-04</internalNodes>
          <leafValues>
            8.6449861526489258e-01 -9.0476191043853760e-01</leafValues></_>
        <_>
          <internalNodes>
            0 -1 44 1.2034969404339790e-03</internalNodes>
          <leafValues>
            6.7371672391891479e-01 -9.2131662368774414e-01</leafValues></_>
        <_>
          <internalNodes>
            0 -1 23 -1.6002228949218988e-04</internalNodes>
          <leafValues>
            5.8468586206436157e-01 -7.2042423486709595e-01</leafValues></_></weakClassifiers></_>
    <!-- stage 15 -->
    <_>
      <maxWeakCount>4</maxWeakCount>
      <stageThreshold>1.4245405793190002e-01</stageThreshold>
      <weakClassifiers>
        <_>
          <internalNodes>
            0 -1 9 -5.2847596816718578e-03</internalNodes>
          <leafValues>
            -9.5121949911117554e-01 8.6468201875686646e-01</leafValues></_>
        <_>
          <internalNodes>
            0 -1 42 3.9037812966853380e-03</internalNodes>
          <leafValues>
            7.9989343881607056e-01 -7.0560759305953979e-01</leafValues></_>
        <_>
          <internalNodes>
            0 -1 32 -3.0299054924398661e-03</internalNodes>
          <leafValues>
            6.1145716905593872e-01 -7.3728287220001221e-01</leafValues></_>
        <_>
          <internalNodes>
            0 -1 33 -1.9728452025447041e-04</internalNodes>
          <leafValues>
            -5.7448470592498779e-01 7.2066247463226318e-01</leafValues></_></weakClassifiers></_>
    <!-- stage 16 -->
    <_>
      <maxWeakCount>4</maxWeakCount>
      <stageThreshold>1.8360902369022369e-01</stageThreshold>
      <weakClassifiers>
        <_>
          <internalNodes>
            0 -1 30 1.6658491222187877e-04</internalNodes>
          <leafValues>
            8.7465941905975342e-01 -9.1304349899291992e-01</leafValues></_>
        <_>
          <internalNodes>
            0 -1 27 2.9305799398571253e-04</internalNodes>
          <leafValues>
            8.9903044700622559e-01 -6.3704603910446167e-01</leafValues></_>
        <_>
          <internalNodes>
            0 -1 39 1.4377279439941049e-03</internalNodes>
          <leafValues>
            8.1476366519927979e-01 -6.2660074234008789e-01</leafValues></_>
        <_>
          <internalNodes>
            0 -1 7 1.1106282472610474e-03</internalNodes>
          <leafValues>
            5.7259637117385864e-01 -8.2044261693954468e-01</leafValues></_></weakClassifiers></_></stages>
  <features>
    <_>
      <rects>
        <_>
          0 0 10 18 -1.</_>
        <_>
          5 0 5 18 2.</_></rects>
      <tilted>0</tilted></_>
    <_>
      <rects>
        <_>
          0 0 24 13 -1.</_>
        <_>
          8 0 8 13 3.</_></rects>
      <tilted>0</tilted></_>
    <_>
      <rects>
        <_>
          0 3 24 19 -1.</_>
        <_>
          8 3 8 19 3.</_></rects>
      <tilted>0</tilted></_>
    <_>
      <rects>
        <_>
          0 16 9 6 -1.</_>
        <_>
          3 16 3 6 3.</_></rects>
      <tilted>0</tilted></_>
    <_>
      <rects>
        <_>
          1 0 21 21 -1.</_>
        <_>
          8 0 7 21 3.</_></rects>
      <tilted>0</tilted></_>
    <_>
      <rects>
        <_>
          1 0 18 24 -1.</_>
        <_>
          1 8 18 8 3.</_></rects>
      <tilted>0</tilted></_>
    <_>
      <rects>
        <_>
          1 17 2 2 -1.</_>
        <_>
          2 17 1 2 2.</_></rects>
      <tilted>0</tilted></_>
    <_>
      <rects>
        <_>
          1 18 2 6 -1.</_>
        <_>
          1 18 1 3 2.</_>
        <_>
          2 21 1 3 2.</_></rects>
      <tilted>0</tilted></_>
    <_>
      <rects>
        <_>
          1 19 4 1 -1.</_>
        <_>
          3 19 2 1 2.</_></rects>
      <tilted>0</tilted></_>
    <_>
      <rects>
        <_>
          2 9 21 8 -1.</_>
        <_>
          2 13 21 4 2.</_></rects>
      <tilted>0</tilted></_>
    <_>
      <rects>
        <_>
          2 13 4 3 -1.</_>
        <_>
          2 14 4 1 3.</_></rects>
      <tilted>0</tilted></_>
    <_>
      <rects>
        <_>
          2 17 6 6 -1.</_>
        <_>
          4 17 2 6 3.</_></rects>
      <tilted>0</tilted></_>
    <_>
      <rects>
        <_>
          3 3 18 19 -1.</_>
        <_>
          9 3 6 19 3.</_></rects>
      <tilted>0</tilted></_>
    <_>
      <rects>
        <_>
          3 3 21 13 -1.</_>
        <_>
          10 3 7 13 3.</_></rects>
      <tilted>0</tilted></_>
    <_>
      <rects>
        <_>
          3 4 21 14 -1.</_>
        <_>
          10 4 7 14 3.</_></rects>
      <tilted>0</tilted></_>
    <_>
      <rects>
        <_>
          3 6 6 11 -1.</_>
        <_>
          5 6 2 11 3.</_></rects>
      <tilted>0</tilted></_>
    <_>
      <rects>
        <_>
          3 9 12 3 -1.</_>
        <_>
          3 10 12 1 3.</_></rects>
      <tilted>0</tilted></_>
    <_>
      <rects>
        <_>
          4 0 15 24 -1.</_>
        <_>
          4 8 15 8 3.</_></rects>
      <tilted>0</tilted></_>
    <_>
      <rects>
        <_>
          4 10 4 14 -1.</_>
        <_>
          4 17 4 7 2.</_></rects>
      <tilted>0</tilted></_>
    <_>
      <rects>
        <_>
          4 16 1 2 -1.</_>
        <_>
          4 17 1 1 2.</_></rects>
      <tilted>0</tilted></_>
    <_>
      <rects>
        <_>
          5 0 13 14 -1.</_>
        <_>
          5 7 13 7 2.</_></rects>
      <tilted>0</tilted></_>
    <_>
      <rects>
        <_>
          6 7 16 4 -1.</_>
        <_>
          14 7 8 4 2.</_></rects>
      <tilted>0</tilted></_>
    <_>
      <rects>
        <_>
          6 20 10 4 -1.</_>
        <_>
          6 22 10 2 2.</_></rects>
      <tilted>0</tilted></_>
    <_>
      <rects>
        <_>
          7 4 6 8 -1.</_>
        <_>
          7 4 3 4 2.</_>
        <_>
          10 8 3 4 2.</_></rects>
      <tilted>0</tilted></_>
    <_>
      <rects>
        <_>
          7 5 8 6 -1.</_>
        <_>
          7 5 4 3 2.</_>
        <_>
          11 8 4 3 2.</_></rects>
      <tilted>0</tilted></_>
    <_>
      <rects>
        <_>
          8 11 16 9 -1.</_>
        <_>
          16 11 8 9 2.</_></rects>
      <tilted>0</tilted></_>
    <_>
      <rects>
        <_>
          9 3 10 21 -1.</_>
        <_>
          9 10 10 7 3.</_></rects>
      <tilted>0</tilted></_>
    <_>
      <rects>
        <_>
          9 10 3 1 -1.</_>
        <_>
          10 10 1 1 3.</_></rects>
      <tilted>0</tilted></_>
    <_>
      <rects>
        <_>
          10 2 9 21 -1.</_>
        <_>
          10 9 9 7 3.</_></rects>
      <tilted>0</tilted></_>
    <_>
      <rects>
        <_>
          10 6 12 18 -1.</_>
        <_>
          10 15 12 9 2.</_></rects>
      <tilted>0</tilted></_>
    <_>
      <rects>
        <_>
          10 10 2 1 -1.</_>
        <_>
          11 10 1 1 2.</_></rects>
      <tilted>0</tilted></_>
    <_>
      <rects>
        <_>
          12 1 12 20 -1.</_>
        <_>
          18 1 6 20 2.</_></rects>
      <tilted>0</tilted></_>
    <_>
      <rects>
        <_>
          12 5 9 3 -1.</_>
        <_>
          15 5 3 3 3.</_></rects>
      <tilted>0</tilted></_>
    <_>
      <rects>
        <_>
          12 9 1 2 -1.</_>
        <_>
          12 10 1 1 2.</_></rects>
      <tilted>0</tilted></_>
    <_>
      <rects>
        <_>
          12 9 4 2 -1.</_>
        <_>
          14 9 2 2 2.</_></rects>
      <tilted>0</tilted></_>
    <_>
      <rects>
        <_>
          13 8 10 8 -1.</_>
        <_>
          18 8 5 8 2.</_></rects>
      <tilted>0</tilted></_>
    <_>
      <rects>
        <_>
          14 8 8 6 -1.</_>
        <_>
          14 8 4 3 2.</_>
        <_>
          18 11 4 3 2.</_></rects>
      <tilted>0</tilted></_>
    <_>
      <rects>
        <_>
          15 16 1 8 -1.</_>
        <_>
          15 20 1 4 2.</_></rects>
      <tilted>0</tilted></_>
    <_>
      <rects>
        <_>
          16 0 6 18 -1.</_>
        <_>
          19 0 3 18 2.</_></rects>
      <tilted>0</tilted></_>
    <_>
      <rects>
        <_>
          16 1 2 16 -1.</_>
        <_>
          16 1 1 8 2.</_>
        <_>
          17 9 1 8 2.</_></rects>
      <tilted>0</tilted></_>
    <_>
      <rects>
        <_>
          16 7 2 10 -1.</_>
        <_>
          17 7 1 10 2.</_></rects>
      <tilted>0</tilted></_>
    <_>
      <rects>
        <_>
          16 9 4 2 -1.</_>
        <_>
          16 10 4 1 2.</_></rects>
      <tilted>0</tilted></_>
    <_>
      <rects>
        <_>
          17 12 6 6 -1.</_>
        <_>
          17 14 6 2 3.</_></rects>
      <tilted>0</tilted></_>
    <_>
      <rects>
        <_>
          18 6 6 16 -1.</_>
        <_>
          20 6 2 16 3.</_></rects>
      <tilted>0</tilted></_>
    <_>
      <rects>
        <_>
          18 10 2 3 -1.</_>
        <_>
          18 11 2 1 3.</_></rects>
      <tilted>0</tilted></_>
    <_>
      <rects>
        <_>
          18 12 6 4 -1.</_>
        <_>
          20 12 2 4 3.</_></rects>
      <tilted>0</tilted></_>
    <_>
      <rects>
        <_>
          22 0 2 22 -1.</_>
        <_>
          22 0 1 11 2.</_>
        <_>
          23 11 1 11 2.</_></rects>
      <tilted>0</tilted></_>
    <_>
      <rects>
        <_>
          23 2 1 22 -1.</_>
        <_>
          23 13 1 11 2.</_></rects>
      <tilted>0</tilted></_></features></cascade>
</opencv_storage>
