<?xml version="1.0"?>
<opencv_storage>
<cascade>
  <stageType>BOOST</stageType>
  <featureType>HAAR</featureType>
  <height>24</height>
  <width>24</width>
  <stageParams>
    <boostType>GAB</boostType>
    <minHitRate>9.9500000476837158e-01</minHitRate>
    <maxFalseAlarm>5.0000000000000000e-01</maxFalseAlarm>
    <weightTrimRate>9.4999999999999996e-01</weightTrimRate>
    <maxDepth>1</maxDepth>
    <maxWeakCount>100</maxWeakCount></stageParams>
  <featureParams>
    <maxCatCount>0</maxCatCount>
    <featSize>1</featSize>
    <mode>BASIC</mode></featureParams>
  <stageNum>15</stageNum>
  <stages>
    <!-- stage 0 -->
    <_>
      <maxWeakCount>1</maxWeakCount>
      <stageThreshold>1.</stageThreshold>
      <weakClassifiers>
        <_>
          <internalNodes>
            0 -1 0 -2.4378666281700134e-01</internalNodes>
          <leafValues>
            1. -1.</leafValues></_></weakClassifiers></_>
    <!-- stage 1 -->
    <_>
      <maxWeakCount>1</maxWeakCount>
      <stageThreshold>9.6031743288040161e-01</stageThreshold>
      <weakClassifiers>
        <_>
          <internalNodes>
            0 -1 11 -3.9821395277976990e-01</internalNodes>
          <leafValues>
            9.6031743288040161e-01 -1.</leafValues></_></weakClassifiers></_>
    <!-- stage 2 -->
    <_>
      <maxWeakCount>1</maxWeakCount>
      <stageThreshold>1.</stageThreshold>
      <weakClassifiers>
        <_>
          <internalNodes>
            0 -1 12 -1.2771989405155182e-01</internalNodes>
          <leafValues>
            1. -1.</leafValues></_></weakClassifiers></_>
    <!-- stage 3 -->
    <_>
      <maxWeakCount>2</maxWeakCount>
      <stageThreshold>-3.4677583724260330e-02</stageThreshold>
      <weakClassifiers>
        <_>
          <internalNodes>
            0 -1 3 -2.3324853181838989e-01</internalNodes>
          <leafValues>
            9.3650794029235840e-01 -9.1044777631759644e-01</leafValues></_>
        <_>
          <internalNodes>
            0 -1 2 -8.8056966662406921e-02</internalNodes>
          <leafValues>
            8.7577015161514282e-01 -6.7120927572250366e-01</leafValues></_></weakClassifiers></_>
    <!-- stage 4 -->
    <_>
      <maxWeakCount>3</maxWeakCount>
      <stageThreshold>6.4041376113891602e-01</stageThreshold>
      <weakClassifiers>
        <_>
          <internalNodes>
            0 -1 13 5.0114385783672333e-02</internalNodes>
          <leafValues>
            -7.2413790225982666e-01 8.3141762018203735e-01</leafValues></_>
        <_>
          <internalNodes>
            0 -1 6 -3.3705480396747589e-02</internalNodes>
          <leafValues>
            6.9066250324249268e-01 -9.2122650146484375e-01</leafValues></_>
        <_>
          <internalNodes>
            0 -1 16 2.4757408536970615e-03</internalNodes>
          <leafValues>
            -8.4472459554672241e-01 7.3022264242172241e-01</leafValues></_></weakClassifiers></_>
    <!-- stage 5 -->
    <_>
      <maxWeakCount>2</maxWeakCount>
      <stageThreshold>8.9848913252353668e-02</stageThreshold>
      <weakClassifiers>
        <_>
          <internalNodes>
            0 -1 8 -1.0631568147800863e-04</internalNodes>
          <leafValues>
            -6.8253970146179199e-01 8.3549785614013672e-01</leafValues></_>
        <_>
          <internalNodes>
            0 -1 1 -2.0533394813537598e-01</internalNodes>
          <leafValues>
            7.7238857746124268e-01 -7.3104101419448853e-01</leafValues></_></weakClassifiers></_>
    <!-- stage 6 -->
    <_>
      <maxWeakCount>4</maxWeakCount>
      <stageThreshold>-7.6648630201816559e-02</stageThreshold>
      <weakClassifiers>
        <_>
          <internalNodes>
            0 -1 30 3.8186011806828901e-05</internalNodes>
          <leafValues>
            -8.5454547405242920e-01 8.2426780462265015e-01</leafValues></_>
        <_>
          <internalNodes>
            0 -1 9 -3.4544225782155991e-03</internalNodes>
          <leafValues>
            8.7058442831039429e-01 -5.8342409133911133e-01</leafValues></_>
        <_>
          <internalNodes>
            0 -1 28 3.3639089087955654e-04</internalNodes>
          <leafValues>
            6.6949546337127686e-01 -9.3288576602935791e-01</leafValues></_>
        <_>
          <internalNodes>
            0 -1 20 7.3876662645488977e-04</internalNodes>
          <leafValues>
            6.9182544946670532e-01 -9.3343114852905273e-01</leafValues></_></weakClassifiers></_>
    <!-- stage 7 -->
    <_>
      <maxWeakCount>4</maxWeakCount>
      <stageThreshold>-2.3897422477602959e-02</stageThreshold>
      <weakClassifiers>
        <_>
          <internalNodes>
            0 -1 17 -7.6513914391398430e-03</internalNodes>
          <leafValues>
            8.6301368474960327e-01 -5.1999998092651367e-01</leafValues></_>
        <_>
          <internalNodes>
            0 -1 5 1.6498065087944269e-03</internalNodes>
          <leafValues>
            -6.7348092794418335e-01 7.4528223276138306e-01</leafValues></_>
        <_>
          <internalNodes>
            0 -1 19 -1.8476903278497048e-05</internalNodes>
          <leafValues>
            5.2861613035202026e-01 -8.7387388944625854e-01</leafValues></_>
        <_>
          <internalNodes>
            0 -1 22 5.5990205146372318e-04</internalNodes>
          <leafValues>
            -6.9008779525756836e-01 6.4096736907958984e-01</leafValues></_></weakClassifiers></_>
    <!-- stage 8 -->
    <_>
      <maxWeakCount>3</maxWeakCount>
      <stageThreshold>5.2413868904113770e-01</stageThreshold>
      <weakClassifiers>
        <_>
          <internalNodes>
            0 -1 23 8.9355860836803913e-05</internalNodes>
          <leafValues>
            7.7959185838699341e-01 -8.3673471212387085e-01</leafValues></_>
        <_>
          <internalNodes>
            0 -1 32 7.4283184949308634e-04</internalNodes>
          <leafValues>
            5.5116468667984009e-01 -9.6174317598342896e-01</leafValues></_>
        <_>
          <internalNodes>
            0 -1 15 -1.4480685815215111e-02</internalNodes>
          <leafValues>
            8.0970871448516846e-01 -6.5377920866012573e-01</leafValues></_></weakClassifiers></_>
    <!-- stage 9 -->
    <_>
      <maxWeakCount>4</maxWeakCount>
      <stageThreshold>-3.7521576881408691e-01</stageThreshold>
      <weakClassifiers>
        <_>
          <internalNodes>
            0 -1 24 -1.3951553404331207e-01</internalNodes>
          <leafValues>
            7.4603176116943359e-01 -9.0476191043853760e-01</leafValues></_>
        <_>
          <internalNodes>
            0 -1 10 -3.7399153225123882e-03</internalNodes>
          <leafValues>
            8.6976850032806396e-01 -6.5085482597351074e-01</leafValues></_>
        <_>
          <internalNodes>
            0 -1 33 6.2074314337223768e-04</internalNodes>
          <leafValues>
            -9.1436570882797241e-01 5.4588192701339722e-01</leafValues></_>
        <_>
          <internalNodes>
            0 -1 7 -3.1747780740261078e-02</internalNodes>
          <leafValues>
            6.3451898097991943e-01 -6.6760414838790894e-01</leafValues></_></weakClassifiers></_>
    <!-- stage 10 -->
    <_>
      <maxWeakCount>1</maxWeakCount>
      <stageThreshold>7.4803149700164795e-01</stageThreshold>
      <weakClassifiers>
        <_>
          <internalNodes>
            0 -1 25 8.4542989498004317e-05</internalNodes>
          <leafValues>
            -1. 7.4803149700164795e-01</leafValues></_></weakClassifiers></_>
    <!-- stage 11 -->
    <_>
      <maxWeakCount>1</maxWeakCount>
      <stageThreshold>7.2762644290924072e-01</stageThreshold>
      <weakClassifiers>
        <_>
          <internalNodes>
            0 -1 31 4.9763661809265614e-04</internalNodes>
          <leafValues>
            7.2762644290924072e-01 -1.</leafValues></_></weakClassifiers></_>
    <!-- stage 12 -->
    <_>
      <maxWeakCount>3</maxWeakCount>
      <stageThreshold>-5.2619576454162598e-01</stageThreshold>
      <weakClassifiers>
        <_>
          <internalNodes>
            0 -1 14 2.9801655909977853e-04</internalNodes>
          <leafValues>
            -7.8947371244430542e-01 8.2278478145599365e-01</leafValues></_>
        <_>
          <internalNodes>
            0 -1 4 1.3957015653431881e-05</internalNodes>
          <leafValues>
            -5.8559477329254150e-01 7.9651737213134766e-01</leafValues></_>
        <_>
          <internalNodes>
            0 -1 26 1.1311121052131057e-03</internalNodes>
          <leafValues>
            6.7033845186233521e-01 -7.6338577270507812e-01</leafValues></_></weakClassifiers></_>
    <!-- stage 13 -->
    <_>
      <maxWeakCount>3</maxWeakCount>
      <stageThreshold>5.7173812389373779e-01</stageThreshold>
      <weakClassifiers>
        <_>
          <internalNodes>
            0 -1 18 4.7489069402217865e-03</internalNodes>
          <leafValues>
            7.9508197307586670e-01 -8.7999999523162842e-01</leafValues></_>
        <_>
          <internalNodes>
            0 -1 21 -6.3147186301648617e-04</internalNodes>
          <leafValues>
            -7.9773861169815063e-01 6.8477618694305420e-01</leafValues></_>
        <_>
          <internalNodes>
            0 -1 27 3.9437352679669857e-03</internalNodes>
          <leafValues>
            -7.3606425523757935e-01 7.6696193218231201e-01</leafValues></_></weakClassifiers></_>
    <!-- stage 14 -->
    <_>
      <maxWeakCount>1</maxWeakCount>
      <stageThreshold>7.8947371244430542e-01</stageThreshold>
      <weakClassifiers>
        <_>
          <internalNodes>
            0 -1 29 1.3320813886821270e-03</internalNodes>
          <leafValues>
            7.8947371244430542e-01 -9.5744681358337402e-01</leafValues></_></weakClassifiers></_></stages>
  <features>
    <_>
      <rects>
        <_>
          0 0 17 24 -1.</_>
        <_>
          0 8 17 8 3.</_></rects>
      <tilted>0</tilted></_>
    <_>
      <rects>
        <_>
          0 5 24 7 -1.</_>
        <_>
          8 5 8 7 3.</_></rects>
      <tilted>0</tilted></_>
    <_>
      <rects>
        <_>
          0 6 24 3 -1.</_>
        <_>
          8 6 8 3 3.</_></rects>
      <tilted>0</tilted></_>
    <_>
      <rects>
        <_>
          0 6 24 11 -1.</_>
        <_>
          8 6 8 11 3.</_></rects>
      <tilted>0</tilted></_>
    <_>
      <rects>
        <_>
          0 17 2 1 -1.</_>
        <_>
          1 17 1 1 2.</_></rects>
      <tilted>0</tilted></_>
    <_>
      <rects>
        <_>
          0 17 9 2 -1.</_>
        <_>
          3 17 3 2 3.</_></rects>
      <tilted>0</tilted></_>
    <_>
      <rects>
        <_>
          1 4 8 9 -1.</_>
        <_>
          5 4 4 9 2.</_></rects>
      <tilted>0</tilted></_>
    <_>
      <rects>
        <_>
          1 7 15 4 -1.</_>
        <_>
          6 7 5 4 3.</_></rects>
      <tilted>0</tilted></_>
    <_>
      <rects>
        <_>
          1 18 9 5 -1.</_>
        <_>
          4 18 3 5 3.</_></rects>
      <tilted>0</tilted></_>
    <_>
      <rects>
        <_>
          3 9 6 6 -1.</_>
        <_>
          5 9 2 6 3.</_></rects>
      <tilted>0</tilted></_>
    <_>
      <rects>
        <_>
          3 10 6 4 -1.</_>
        <_>
          5 10 2 4 3.</_></rects>
      <tilted>0</tilted></_>
    <_>
      <rects>
        <_>
          5 0 15 24 -1.</_>
        <_>
          5 8 15 8 3.</_></rects>
      <tilted>0</tilted></_>
    <_>
      <rects>
        <_>
          6 0 18 15 -1.</_>
        <_>
          12 0 6 15 3.</_></rects>
      <tilted>0</tilted></_>
    <_>
      <rects>
        <_>
          6 8 3 16 -1.</_>
        <_>
          6 16 3 8 2.</_></rects>
      <tilted>0</tilted></_>
    <_>
      <rects>
        <_>
          8 7 10 10 -1.</_>
        <_>
          8 12 10 5 2.</_></rects>
      <tilted>0</tilted></_>
    <_>
      <rects>
        <_>
          8 14 7 9 -1.</_>
        <_>
          8 17 7 3 3.</_></rects>
      <tilted>0</tilted></_>
    <_>
      <rects>
        <_>
          8 19 7 2 -1.</_>
        <_>
          8 20 7 1 2.</_></rects>
      <tilted>0</tilted></_>
    <_>
      <rects>
        <_>
          10 8 6 8 -1.</_>
        <_>
          12 8 2 8 3.</_></rects>
      <tilted>0</tilted></_>
    <_>
      <rects>
        <_>
          11 16 9 8 -1.</_>
        <_>
          14 16 3 8 3.</_></rects>
      <tilted>0</tilted></_>
    <_>
      <rects>
        <_>
          12 7 3 6 -1.</_>
        <_>
          13 7 1 6 3.</_></rects>
      <tilted>0</tilted></_>
    <_>
      <rects>
        <_>
          12 20 6 4 -1.</_>
        <_>
          12 20 3 2 2.</_>
        <_>
          15 22 3 2 2.</_></rects>
      <tilted>0</tilted></_>
    <_>
      <rects>
        <_>
          13 4 2 8 -1.</_>
        <_>
          13 4 1 4 2.</_>
        <_>
          14 8 1 4 2.</_></rects>
      <tilted>0</tilted></_>
    <_>
      <rects>
        <_>
          13 8 4 4 -1.</_>
        <_>
          13 8 2 2 2.</_>
        <_>
          15 10 2 2 2.</_></rects>
      <tilted>0</tilted></_>
    <_>
      <rects>
        <_>
          13 11 1 2 -1.</_>
        <_>
          13 12 1 1 2.</_></rects>
      <tilted>0</tilted></_>
    <_>
      <rects>
        <_>
          14 0 5 24 -1.</_>
        <_>
          14 8 5 8 3.</_></rects>
      <tilted>0</tilted></_>
    <_>
      <rects>
        <_>
          14 13 4 2 -1.</_>
        <_>
          14 14 4 1 2.</_></rects>
      <tilted>0</tilted></_>
    <_>
      <rects>
        <_>
          15 15 2 2 -1.</_>
        <_>
          15 16 2 1 2.</_></rects>
      <tilted>0</tilted></_>
    <_>
      <rects>
        <_>
          15 17 6 3 -1.</_>
        <_>
          18 17 3 3 2.</_></rects>
      <tilted>0</tilted></_>
    <_>
      <rects>
        <_>
          16 11 7 9 -1.</_>
        <_>
          16 14 7 3 3.</_></rects>
      <tilted>0</tilted></_>
    <_>
      <rects>
        <_>
          18 10 5 3 -1.</_>
        <_>
          18 11 5 1 3.</_></rects>
      <tilted>0</tilted></_>
    <_>
      <rects>
        <_>
          19 0 4 4 -1.</_>
        <_>
          21 0 2 4 2.</_></rects>
      <tilted>0</tilted></_>
    <_>
      <rects>
        <_>
          19 11 1 2 -1.</_>
        <_>
          19 12 1 1 2.</_></rects>
      <tilted>0</tilted></_>
    <_>
      <rects>
        <_>
          20 23 4 1 -1.</_>
        <_>
          22 23 2 1 2.</_></rects>
      <tilted>0</tilted></_>
    <_>
      <rects>
        <_>
          22 0 2 8 -1.</_>
        <_>
          23 0 1 8 2.</_></rects>
      <tilted>0</tilted></_></features></cascade>
</opencv_storage>
