<?xml version="1.0"?>
<opencv_storage>
<stage13>
  <maxWeakCount>5</maxWeakCount>
  <stageThreshold>9.7538121044635773e-02</stageThreshold>
  <weakClassifiers>
    <_>
      <internalNodes>
        0 -1 128687 -4.2517613619565964e-03</internalNodes>
      <leafValues>
        -8.9999997615814209e-01 8.5945945978164673e-01</leafValues></_>
    <_>
      <internalNodes>
        0 -1 138894 6.0158078558743000e-03</internalNodes>
      <leafValues>
        -2.9387313127517700e-01 8.7019598484039307e-01</leafValues></_>
    <_>
      <internalNodes>
        0 -1 112078 1.5108878910541534e-01</internalNodes>
      <leafValues>
        -4.2000243067741394e-01 8.7018013000488281e-01</leafValues></_>
    <_>
      <internalNodes>
        0 -1 149909 -2.0641917362809181e-03</internalNodes>
      <leafValues>
        7.4953091144561768e-01 -4.7324168682098389e-01</leafValues></_>
    <_>
      <internalNodes>
        0 -1 161419 -2.8080953052267432e-04</internalNodes>
      <leafValues>
        -8.3039033412933350e-01 4.2519590258598328e-01</leafValues></_></weakClassifiers></stage13>
</opencv_storage>
