<?xml version="1.0"?>
<opencv_storage>
<stage17>
  <maxWeakCount>5</maxWeakCount>
  <stageThreshold>-5.7058578729629517e-01</stageThreshold>
  <weakClassifiers>
    <_>
      <internalNodes>
        0 -1 24097 -4.1811738628894091e-04</internalNodes>
      <leafValues>
        -8.0952382087707520e-01 7.0434784889221191e-01</leafValues></_>
    <_>
      <internalNodes>
        0 -1 57725 -7.0006987079977989e-03</internalNodes>
      <leafValues>
        8.7253326177597046e-01 -4.1482093930244446e-01</leafValues></_>
    <_>
      <internalNodes>
        0 -1 162118 1.2442469596862793e-02</internalNodes>
      <leafValues>
        5.0143158435821533e-01 -8.9347511529922485e-01</leafValues></_>
    <_>
      <internalNodes>
        0 -1 161384 2.2966635879129171e-03</internalNodes>
      <leafValues>
        4.9177098274230957e-01 -8.1639665365219116e-01</leafValues></_>
    <_>
      <internalNodes>
        0 -1 100172 -9.0379603207111359e-03</internalNodes>
      <leafValues>
        6.9949442148208618e-01 -5.4514759778976440e-01</leafValues></_></weakClassifiers></stage17>
</opencv_storage>
