<?xml version="1.0"?>
<opencv_storage>
<stage16>
  <maxWeakCount>5</maxWeakCount>
  <stageThreshold>-6.8931436538696289e-01</stageThreshold>
  <weakClassifiers>
    <_>
      <internalNodes>
        0 -1 141841 1.6896957531571388e-03</internalNodes>
      <leafValues>
        6.9827586412429810e-01 -8.5000002384185791e-01</leafValues></_>
    <_>
      <internalNodes>
        0 -1 78813 -1.3804011046886444e-02</internalNodes>
      <leafValues>
        5.4595720767974854e-01 -7.7035748958587646e-01</leafValues></_>
    <_>
      <internalNodes>
        0 -1 142259 -4.7670053318142891e-03</internalNodes>
      <leafValues>
        -8.6540830135345459e-01 5.1829177141189575e-01</leafValues></_>
    <_>
      <internalNodes>
        0 -1 46196 -2.1507162600755692e-02</internalNodes>
      <leafValues>
        8.8289982080459595e-01 -5.3618872165679932e-01</leafValues></_>
    <_>
      <internalNodes>
        0 -1 45825 -5.4648704826831818e-02</internalNodes>
      <leafValues>
        6.6190439462661743e-01 -5.9933573007583618e-01</leafValues></_></weakClassifiers></stage16>
</opencv_storage>
