<?xml version="1.0"?>
<opencv_storage>
<stage13>
  <maxWeakCount>5</maxWeakCount>
  <stageThreshold>-6.0971248149871826e-01</stageThreshold>
  <weakClassifiers>
    <_>
      <internalNodes>
        0 -1 121596 -4.3509000533958897e-05</internalNodes>
      <leafValues>
        7.7777779102325439e-01 -7.1428573131561279e-01</leafValues></_>
    <_>
      <internalNodes>
        0 -1 10632 1.1200271546840668e-03</internalNodes>
      <leafValues>
        -4.8726490139961243e-01 7.9646027088165283e-01</leafValues></_>
    <_>
      <internalNodes>
        0 -1 159727 1.1859410442411900e-03</internalNodes>
      <leafValues>
        4.9800112843513489e-01 -9.1835683584213257e-01</leafValues></_>
    <_>
      <internalNodes>
        0 -1 137190 -1.2566629266075324e-05</internalNodes>
      <leafValues>
        5.6520366668701172e-01 -5.9863847494125366e-01</leafValues></_>
    <_>
      <internalNodes>
        0 -1 19816 -5.2803389728069305e-02</internalNodes>
      <leafValues>
        6.9574397802352905e-01 -5.4707217216491699e-01</leafValues></_></weakClassifiers></stage13>
</opencv_storage>
